<?xml version="1.0"?>
<opencv_storage>
<cascade>
  <stageType>BOOST</stageType>
  <featureType>HAAR</featureType>
  <height>40</height>
  <width>40</width>
  <stageParams>
    <boostType>GAB</boostType>
    <minHitRate>9.9900001287460327e-01</minHitRate>
    <maxFalseAlarm>5.0000000000000000e-01</maxFalseAlarm>
    <weightTrimRate>9.4999999999999996e-01</weightTrimRate>
    <maxDepth>1</maxDepth>
    <maxWeakCount>100</maxWeakCount></stageParams>
  <featureParams>
    <maxCatCount>0</maxCatCount>
    <featSize>1</featSize>
    <mode>ALL</mode></featureParams>
  <stageNum>1</stageNum>
  <stages>
    <!-- stage 0 -->
    <_>
      <maxWeakCount>5</maxWeakCount>
      <stageThreshold>-8.7673211097717285e-01</stageThreshold>
      <weakClassifiers>
        <_>
          <internalNodes>
            0 -1 0 -8.4673047065734863e-02</internalNodes>
          <leafValues>
            3.2394367456436157e-01 -7.3964494466781616e-01</leafValues></_>
        <_>
          <internalNodes>
            0 -1 4 -6.3305377261713147e-04</internalNodes>
          <leafValues>
            6.0383182764053345e-01 -4.7693216800689697e-01</leafValues></_>
        <_>
          <internalNodes>
            0 -1 2 1.2917324900627136e-01</internalNodes>
          <leafValues>
            2.9198470711708069e-01 -9.1542392969131470e-01</leafValues></_>
        <_>
          <internalNodes>
            0 -1 1 -5.8364458382129669e-03</internalNodes>
          <leafValues>
            6.5047335624694824e-01 -4.0502259135246277e-01</leafValues></_>
        <_>
          <internalNodes>
            0 -1 3 -5.5489840451627970e-04</internalNodes>
          <leafValues>
            5.9670287370681763e-01 -3.2556709647178650e-01</leafValues></_></weakClassifiers></_></stages>
  <features>
    <_>
      <rects>
        <_>
          12 5 27 7 -1.</_>
        <_>
          21 14 9 7 3.</_></rects>
      <tilted>1</tilted></_>
    <_>
      <rects>
        <_>
          12 13 10 6 -1.</_>
        <_>
          10 15 10 2 3.</_></rects>
      <tilted>1</tilted></_>
    <_>
      <rects>
        <_>
          14 0 18 40 -1.</_>
        <_>
          14 20 18 20 2.</_></rects>
      <tilted>0</tilted></_>
    <_>
      <rects>
        <_>
          15 2 18 3 -1.</_>
        <_>
          15 3 18 1 3.</_></rects>
      <tilted>0</tilted></_>
    <_>
      <rects>
        <_>
          18 18 2 10 -1.</_>
        <_>
          18 18 1 5 2.</_>
        <_>
          19 23 1 5 2.</_></rects>
      <tilted>0</tilted></_></features></cascade>
</opencv_storage>
