<?xml version="1.0"?>
<opencv_storage>
<stage11>
  <maxWeakCount>9</maxWeakCount>
  <stageThreshold>-1.7350522279739380e+00</stageThreshold>
  <weakClassifiers>
    <_>
      <internalNodes>
        0 -1 905921 -1.3493895530700684e-02</internalNodes>
      <leafValues>
        6.9565218687057495e-01 -5.9867328405380249e-01</leafValues></_>
    <_>
      <internalNodes>
        0 -1 1929303 3.6683096550405025e-03</internalNodes>
      <leafValues>
        -3.0304396152496338e-01 7.0487028360366821e-01</leafValues></_>
    <_>
      <internalNodes>
        0 -1 1913307 4.6383487642742693e-05</internalNodes>
      <leafValues>
        -2.3597556352615356e-01 5.5451178550720215e-01</leafValues></_>
    <_>
      <internalNodes>
        0 -1 1292245 6.8341605365276337e-03</internalNodes>
      <leafValues>
        -2.3660752177238464e-01 5.7953399419784546e-01</leafValues></_>
    <_>
      <internalNodes>
        0 -1 1296033 8.1721348688006401e-03</internalNodes>
      <leafValues>
        -1.8092136085033417e-01 7.4060940742492676e-01</leafValues></_>
    <_>
      <internalNodes>
        0 -1 388461 8.3285002037882805e-03</internalNodes>
      <leafValues>
        -2.5518813729286194e-01 5.0852042436599731e-01</leafValues></_>
    <_>
      <internalNodes>
        0 -1 1409280 2.3420901969075203e-02</internalNodes>
      <leafValues>
        -3.0469703674316406e-01 4.9535402655601501e-01</leafValues></_>
    <_>
      <internalNodes>
        0 -1 634199 9.1371388407424092e-04</internalNodes>
      <leafValues>
        -2.2027193009853363e-01 5.6943637132644653e-01</leafValues></_>
    <_>
      <internalNodes>
        0 -1 1276850 -8.6676467617508024e-05</internalNodes>
      <leafValues>
        5.6168198585510254e-01 -2.1581497788429260e-01</leafValues></_></weakClassifiers></stage11>
</opencv_storage>
