<?xml version="1.0"?>
<opencv_storage>
<stage7>
  <maxWeakCount>10</maxWeakCount>
  <stageThreshold>-1.4230508804321289e+00</stageThreshold>
  <weakClassifiers>
    <_>
      <internalNodes>
        0 -1 646272 -5.2794860675930977e-03</internalNodes>
      <leafValues>
        6.1702126264572144e-01 -5.9468436241149902e-01</leafValues></_>
    <_>
      <internalNodes>
        0 -1 1258473 3.3994689583778381e-03</internalNodes>
      <leafValues>
        -3.0906039476394653e-01 6.5329295396804810e-01</leafValues></_>
    <_>
      <internalNodes>
        0 -1 266768 -1.8435935676097870e-01</internalNodes>
      <leafValues>
        -1. 2.0088973641395569e-01</leafValues></_>
    <_>
      <internalNodes>
        0 -1 1485423 -1.0394505225121975e-03</internalNodes>
      <leafValues>
        5.4417580366134644e-01 -2.7928277850151062e-01</leafValues></_>
    <_>
      <internalNodes>
        0 -1 1872354 3.0233483994379640e-04</internalNodes>
      <leafValues>
        -3.1223550438880920e-01 4.7462272644042969e-01</leafValues></_>
    <_>
      <internalNodes>
        0 -1 1735156 1.8707513809204102e-03</internalNodes>
      <leafValues>
        -3.9656740427017212e-01 3.4375411272048950e-01</leafValues></_>
    <_>
      <internalNodes>
        0 -1 1309602 -1.4581233263015747e-01</internalNodes>
      <leafValues>
        -7.6581478118896484e-01 1.7663525044918060e-01</leafValues></_>
    <_>
      <internalNodes>
        0 -1 1698692 -8.8560339063405991e-03</internalNodes>
      <leafValues>
        3.9013734459877014e-01 -3.9772194623947144e-01</leafValues></_>
    <_>
      <internalNodes>
        0 -1 1686446 -9.7265113145112991e-03</internalNodes>
      <leafValues>
        -4.8091536760330200e-01 3.1877368688583374e-01</leafValues></_>
    <_>
      <internalNodes>
        0 -1 677917 -1.6769996727816761e-04</internalNodes>
      <leafValues>
        3.4949269890785217e-01 -4.1452684998512268e-01</leafValues></_></weakClassifiers></stage7>
</opencv_storage>
