<?xml version="1.0"?>
<opencv_storage>
<stage5>
  <maxWeakCount>9</maxWeakCount>
  <stageThreshold>-1.3381006717681885e+00</stageThreshold>
  <weakClassifiers>
    <_>
      <internalNodes>
        0 -1 907326 -5.5472906678915024e-03</internalNodes>
      <leafValues>
        6.4705884456634521e-01 -6.0535115003585815e-01</leafValues></_>
    <_>
      <internalNodes>
        0 -1 1614722 -1.0656230151653290e-02</internalNodes>
      <leafValues>
        3.3352428674697876e-01 -4.8662078380584717e-01</leafValues></_>
    <_>
      <internalNodes>
        0 -1 1038188 -3.7445984780788422e-02</internalNodes>
      <leafValues>
        5.8403140306472778e-01 -2.5518527626991272e-01</leafValues></_>
    <_>
      <internalNodes>
        0 -1 384152 1.7172597581520677e-03</internalNodes>
      <leafValues>
        -2.2444936633110046e-01 6.2694293260574341e-01</leafValues></_>
    <_>
      <internalNodes>
        0 -1 930569 4.6081682667136192e-03</internalNodes>
      <leafValues>
        -3.3520150184631348e-01 4.5201402902603149e-01</leafValues></_>
    <_>
      <internalNodes>
        0 -1 1945280 7.9549360089004040e-04</internalNodes>
      <leafValues>
        -2.5742790102958679e-01 6.1038917303085327e-01</leafValues></_>
    <_>
      <internalNodes>
        0 -1 1457917 6.6537482780404389e-05</internalNodes>
      <leafValues>
        -2.4595095217227936e-01 5.2950912714004517e-01</leafValues></_>
    <_>
      <internalNodes>
        0 -1 1818788 -2.8425641357898712e-04</internalNodes>
      <leafValues>
        4.4478049874305725e-01 -3.0633506178855896e-01</leafValues></_>
    <_>
      <internalNodes>
        0 -1 393053 -2.1163537167012691e-03</internalNodes>
      <leafValues>
        7.8117835521697998e-01 -2.2893926501274109e-01</leafValues></_></weakClassifiers></stage5>
</opencv_storage>
