<?xml version="1.0"?>
<opencv_storage>
<stage10>
  <maxWeakCount>9</maxWeakCount>
  <stageThreshold>-9.0816146135330200e-01</stageThreshold>
  <weakClassifiers>
    <_>
      <internalNodes>
        0 -1 1993460 -1.8233310431241989e-02</internalNodes>
      <leafValues>
        4.6875000000000000e-01 -6.1367523670196533e-01</leafValues></_>
    <_>
      <internalNodes>
        0 -1 597926 2.7049854397773743e-03</internalNodes>
      <leafValues>
        -3.5698288679122925e-01 4.3220844864845276e-01</leafValues></_>
    <_>
      <internalNodes>
        0 -1 692772 1.6765408217906952e-03</internalNodes>
      <leafValues>
        -3.1201425194740295e-01 4.3005788326263428e-01</leafValues></_>
    <_>
      <internalNodes>
        0 -1 1268039 2.7220116462558508e-03</internalNodes>
      <leafValues>
        -2.2082321345806122e-01 6.1090612411499023e-01</leafValues></_>
    <_>
      <internalNodes>
        0 -1 1518610 -9.0579313109628856e-05</internalNodes>
      <leafValues>
        4.9744600057601929e-01 -2.4671144783496857e-01</leafValues></_>
    <_>
      <internalNodes>
        0 -1 1321535 3.1146472319960594e-03</internalNodes>
      <leafValues>
        -2.1565921604633331e-01 5.8766907453536987e-01</leafValues></_>
    <_>
      <internalNodes>
        0 -1 1630068 -2.4575283750891685e-03</internalNodes>
      <leafValues>
        5.6612569093704224e-01 -2.3257577419281006e-01</leafValues></_>
    <_>
      <internalNodes>
        0 -1 1583253 -1.7727196216583252e-02</internalNodes>
      <leafValues>
        -7.1369653940200806e-01 2.4646881222724915e-01</leafValues></_>
    <_>
      <internalNodes>
        0 -1 2037627 1.8075277330353856e-04</internalNodes>
      <leafValues>
        -2.8558075428009033e-01 5.3140777349472046e-01</leafValues></_></weakClassifiers></stage10>
</opencv_storage>
