<?xml version="1.0"?>
<opencv_storage>
<cascade>
  <stageType>BOOST</stageType>
  <featureType>HAAR</featureType>
  <height>35</height>
  <width>35</width>
  <stageParams>
    <boostType>GAB</boostType>
    <minHitRate>9.9500000476837158e-01</minHitRate>
    <maxFalseAlarm>5.0000000000000000e-01</maxFalseAlarm>
    <weightTrimRate>9.4999999999999996e-01</weightTrimRate>
    <maxDepth>1</maxDepth>
    <maxWeakCount>100</maxWeakCount></stageParams>
  <featureParams>
    <maxCatCount>0</maxCatCount>
    <featSize>1</featSize>
    <mode>BASIC</mode></featureParams>
  <stageNum>5</stageNum>
  <stages>
    <!-- stage 0 -->
    <_>
      <maxWeakCount>5</maxWeakCount>
      <stageThreshold>-2.3992445468902588e+00</stageThreshold>
      <weakClassifiers>
        <_>
          <internalNodes>
            0 -1 9 -7.9259857535362244e-02</internalNodes>
          <leafValues>
            5.1957672834396362e-01 -9.4477087259292603e-01</leafValues></_>
        <_>
          <internalNodes>
            0 -1 24 -6.8510142154991627e-03</internalNodes>
          <leafValues>
            5.2763664722442627e-01 -8.6905932426452637e-01</leafValues></_>
        <_>
          <internalNodes>
            0 -1 3 -1.8267244100570679e-02</internalNodes>
          <leafValues>
            6.6583800315856934e-01 -7.4868541955947876e-01</leafValues></_>
        <_>
          <internalNodes>
            0 -1 19 -1.8632377032190561e-03</internalNodes>
          <leafValues>
            8.6845421791076660e-01 -5.1620399951934814e-01</leafValues></_>
        <_>
          <internalNodes>
            0 -1 0 -2.1601316984742880e-03</internalNodes>
          <leafValues>
            6.7947494983673096e-01 -6.7704534530639648e-01</leafValues></_></weakClassifiers></_>
    <!-- stage 1 -->
    <_>
      <maxWeakCount>4</maxWeakCount>
      <stageThreshold>-1.8441345691680908e+00</stageThreshold>
      <weakClassifiers>
        <_>
          <internalNodes>
            0 -1 13 -6.2522336840629578e-02</internalNodes>
          <leafValues>
            4.9527665972709656e-01 -9.1436249017715454e-01</leafValues></_>
        <_>
          <internalNodes>
            0 -1 15 -6.4966180361807346e-03</internalNodes>
          <leafValues>
            8.5658961534500122e-01 -7.4019008874893188e-01</leafValues></_>
        <_>
          <internalNodes>
            0 -1 22 2.0033920183777809e-02</internalNodes>
          <leafValues>
            -7.5527191162109375e-01 5.4781478643417358e-01</leafValues></_>
        <_>
          <internalNodes>
            0 -1 7 1.3133813627064228e-03</internalNodes>
          <leafValues>
            -6.3806289434432983e-01 5.6568998098373413e-01</leafValues></_></weakClassifiers></_>
    <!-- stage 2 -->
    <_>
      <maxWeakCount>6</maxWeakCount>
      <stageThreshold>-1.7016127109527588e+00</stageThreshold>
      <weakClassifiers>
        <_>
          <internalNodes>
            0 -1 16 -5.2049336954951286e-03</internalNodes>
          <leafValues>
            5.3144651651382446e-01 -9.0248078107833862e-01</leafValues></_>
        <_>
          <internalNodes>
            0 -1 12 -6.8424835801124573e-02</internalNodes>
          <leafValues>
            4.7836834192276001e-01 -8.2917118072509766e-01</leafValues></_>
        <_>
          <internalNodes>
            0 -1 20 -2.3293255362659693e-03</internalNodes>
          <leafValues>
            7.3887032270431519e-01 -5.5271661281585693e-01</leafValues></_>
        <_>
          <internalNodes>
            0 -1 1 3.4577835351228714e-02</internalNodes>
          <leafValues>
            -7.7887088060379028e-01 4.2089849710464478e-01</leafValues></_>
        <_>
          <internalNodes>
            0 -1 10 2.7567844372242689e-03</internalNodes>
          <leafValues>
            -4.3313461542129517e-01 8.3583563566207886e-01</leafValues></_>
        <_>
          <internalNodes>
            0 -1 23 -1.7137456685304642e-02</internalNodes>
          <leafValues>
            5.9499192237854004e-01 -5.2275562286376953e-01</leafValues></_></weakClassifiers></_>
    <!-- stage 3 -->
    <_>
      <maxWeakCount>7</maxWeakCount>
      <stageThreshold>-2.3856313228607178e+00</stageThreshold>
      <weakClassifiers>
        <_>
          <internalNodes>
            0 -1 6 -2.6814330369234085e-02</internalNodes>
          <leafValues>
            2.8960394859313965e-01 -9.0743064880371094e-01</leafValues></_>
        <_>
          <internalNodes>
            0 -1 26 -1.7668674699962139e-03</internalNodes>
          <leafValues>
            6.3241463899612427e-01 -7.0091927051544189e-01</leafValues></_>
        <_>
          <internalNodes>
            0 -1 4 -1.2647661380469799e-02</internalNodes>
          <leafValues>
            5.4319632053375244e-01 -5.6870222091674805e-01</leafValues></_>
        <_>
          <internalNodes>
            0 -1 14 -3.2044301042333245e-04</internalNodes>
          <leafValues>
            7.1115505695343018e-01 -4.2701518535614014e-01</leafValues></_>
        <_>
          <internalNodes>
            0 -1 18 2.4221152998507023e-03</internalNodes>
          <leafValues>
            -5.0561261177062988e-01 5.5921900272369385e-01</leafValues></_>
        <_>
          <internalNodes>
            0 -1 8 1.1679311282932758e-02</internalNodes>
          <leafValues>
            -7.3726528882980347e-01 4.2697176337242126e-01</leafValues></_>
        <_>
          <internalNodes>
            0 -1 25 -4.7255289973691106e-04</internalNodes>
          <leafValues>
            -8.7916713953018188e-01 2.9707694053649902e-01</leafValues></_></weakClassifiers></_>
    <!-- stage 4 -->
    <_>
      <maxWeakCount>6</maxWeakCount>
      <stageThreshold>-2.4738271236419678e+00</stageThreshold>
      <weakClassifiers>
        <_>
          <internalNodes>
            0 -1 11 -1.3376469910144806e-01</internalNodes>
          <leafValues>
            6.0966545343399048e-01 -8.9321029186248779e-01</leafValues></_>
        <_>
          <internalNodes>
            0 -1 21 -1.5445377212017775e-03</internalNodes>
          <leafValues>
            4.8709034919738770e-01 -7.2494465112686157e-01</leafValues></_>
        <_>
          <internalNodes>
            0 -1 5 -7.7397199347615242e-03</internalNodes>
          <leafValues>
            6.9290339946746826e-01 -4.6671164035797119e-01</leafValues></_>
        <_>
          <internalNodes>
            0 -1 27 -3.7771897041238844e-05</internalNodes>
          <leafValues>
            -6.7086517810821533e-01 3.8974875211715698e-01</leafValues></_>
        <_>
          <internalNodes>
            0 -1 17 2.0935926586389542e-02</internalNodes>
          <leafValues>
            -4.2939969897270203e-01 6.4836329221725464e-01</leafValues></_>
        <_>
          <internalNodes>
            0 -1 2 1.8011914566159248e-02</internalNodes>
          <leafValues>
            -3.9282181859016418e-01 7.1130442619323730e-01</leafValues></_></weakClassifiers></_></stages>
  <features>
    <_>
      <rects>
        <_>
          0 27 24 2 -1.</_>
        <_>
          0 27 12 1 2.</_>
        <_>
          12 28 12 1 2.</_></rects>
      <tilted>0</tilted></_>
    <_>
      <rects>
        <_>
          2 1 26 18 -1.</_>
        <_>
          2 1 13 9 2.</_>
        <_>
          15 10 13 9 2.</_></rects>
      <tilted>0</tilted></_>
    <_>
      <rects>
        <_>
          2 3 23 6 -1.</_>
        <_>
          2 6 23 3 2.</_></rects>
      <tilted>0</tilted></_>
    <_>
      <rects>
        <_>
          2 12 9 12 -1.</_>
        <_>
          5 12 3 12 3.</_></rects>
      <tilted>0</tilted></_>
    <_>
      <rects>
        <_>
          3 11 6 16 -1.</_>
        <_>
          5 11 2 16 3.</_></rects>
      <tilted>0</tilted></_>
    <_>
      <rects>
        <_>
          5 19 4 10 -1.</_>
        <_>
          5 19 2 5 2.</_>
        <_>
          7 24 2 5 2.</_></rects>
      <tilted>0</tilted></_>
    <_>
      <rects>
        <_>
          6 23 10 8 -1.</_>
        <_>
          6 23 5 4 2.</_>
        <_>
          11 27 5 4 2.</_></rects>
      <tilted>0</tilted></_>
    <_>
      <rects>
        <_>
          7 2 2 16 -1.</_>
        <_>
          7 2 1 8 2.</_>
        <_>
          8 10 1 8 2.</_></rects>
      <tilted>0</tilted></_>
    <_>
      <rects>
        <_>
          8 10 16 23 -1.</_>
        <_>
          16 10 8 23 2.</_></rects>
      <tilted>0</tilted></_>
    <_>
      <rects>
        <_>
          9 23 17 12 -1.</_>
        <_>
          9 27 17 4 3.</_></rects>
      <tilted>0</tilted></_>
    <_>
      <rects>
        <_>
          10 1 15 3 -1.</_>
        <_>
          10 2 15 1 3.</_></rects>
      <tilted>0</tilted></_>
    <_>
      <rects>
        <_>
          10 23 16 12 -1.</_>
        <_>
          10 27 16 4 3.</_></rects>
      <tilted>0</tilted></_>
    <_>
      <rects>
        <_>
          11 23 16 12 -1.</_>
        <_>
          11 27 16 4 3.</_></rects>
      <tilted>0</tilted></_>
    <_>
      <rects>
        <_>
          11 25 14 9 -1.</_>
        <_>
          11 28 14 3 3.</_></rects>
      <tilted>0</tilted></_>
    <_>
      <rects>
        <_>
          12 1 1 3 -1.</_>
        <_>
          12 2 1 1 3.</_></rects>
      <tilted>0</tilted></_>
    <_>
      <rects>
        <_>
          12 1 12 3 -1.</_>
        <_>
          12 2 12 1 3.</_></rects>
      <tilted>0</tilted></_>
    <_>
      <rects>
        <_>
          14 0 6 3 -1.</_>
        <_>
          14 1 6 1 3.</_></rects>
      <tilted>0</tilted></_>
    <_>
      <rects>
        <_>
          14 9 9 12 -1.</_>
        <_>
          14 13 9 4 3.</_></rects>
      <tilted>0</tilted></_>
    <_>
      <rects>
        <_>
          14 28 20 2 -1.</_>
        <_>
          14 28 10 1 2.</_>
        <_>
          24 29 10 1 2.</_></rects>
      <tilted>0</tilted></_>
    <_>
      <rects>
        <_>
          15 0 5 3 -1.</_>
        <_>
          15 1 5 1 3.</_></rects>
      <tilted>0</tilted></_>
    <_>
      <rects>
        <_>
          16 1 5 3 -1.</_>
        <_>
          16 2 5 1 3.</_></rects>
      <tilted>0</tilted></_>
    <_>
      <rects>
        <_>
          21 1 3 3 -1.</_>
        <_>
          21 2 3 1 3.</_></rects>
      <tilted>0</tilted></_>
    <_>
      <rects>
        <_>
          24 16 8 16 -1.</_>
        <_>
          24 16 4 8 2.</_>
        <_>
          28 24 4 8 2.</_></rects>
      <tilted>0</tilted></_>
    <_>
      <rects>
        <_>
          25 3 9 29 -1.</_>
        <_>
          28 3 3 29 3.</_></rects>
      <tilted>0</tilted></_>
    <_>
      <rects>
        <_>
          26 14 4 9 -1.</_>
        <_>
          28 14 2 9 2.</_></rects>
      <tilted>0</tilted></_>
    <_>
      <rects>
        <_>
          32 7 3 26 -1.</_>
        <_>
          32 20 3 13 2.</_></rects>
      <tilted>0</tilted></_>
    <_>
      <rects>
        <_>
          32 11 3 6 -1.</_>
        <_>
          33 11 1 6 3.</_></rects>
      <tilted>0</tilted></_>
    <_>
      <rects>
        <_>
          34 4 1 2 -1.</_>
        <_>
          34 5 1 1 2.</_></rects>
      <tilted>0</tilted></_></features></cascade>
</opencv_storage>
