<?xml version="1.0"?>
<opencv_storage>
<cascade>
  <stageType>BOOST</stageType>
  <featureType>HAAR</featureType>
  <height>35</height>
  <width>35</width>
  <stageParams>
    <boostType>GAB</boostType>
    <minHitRate>9.9500000476837158e-01</minHitRate>
    <maxFalseAlarm>5.0000000000000000e-01</maxFalseAlarm>
    <weightTrimRate>9.4999999999999996e-01</weightTrimRate>
    <maxDepth>1</maxDepth>
    <maxWeakCount>100</maxWeakCount></stageParams>
  <featureParams>
    <maxCatCount>0</maxCatCount>
    <featSize>1</featSize>
    <mode>BASIC</mode></featureParams>
  <stageNum>1</stageNum>
  <stages>
    <!-- stage 0 -->
    <_>
      <maxWeakCount>5</maxWeakCount>
      <stageThreshold>-2.3992445468902588e+00</stageThreshold>
      <weakClassifiers>
        <_>
          <internalNodes>
            0 -1 2 -7.9259857535362244e-02</internalNodes>
          <leafValues>
            5.1957672834396362e-01 -9.4477087259292603e-01</leafValues></_>
        <_>
          <internalNodes>
            0 -1 4 -6.8510142154991627e-03</internalNodes>
          <leafValues>
            5.2763664722442627e-01 -8.6905932426452637e-01</leafValues></_>
        <_>
          <internalNodes>
            0 -1 1 -1.8267244100570679e-02</internalNodes>
          <leafValues>
            6.6583800315856934e-01 -7.4868541955947876e-01</leafValues></_>
        <_>
          <internalNodes>
            0 -1 3 -1.8632377032190561e-03</internalNodes>
          <leafValues>
            8.6845421791076660e-01 -5.1620399951934814e-01</leafValues></_>
        <_>
          <internalNodes>
            0 -1 0 -2.1601316984742880e-03</internalNodes>
          <leafValues>
            6.7947494983673096e-01 -6.7704534530639648e-01</leafValues></_></weakClassifiers></_></stages>
  <features>
    <_>
      <rects>
        <_>
          0 27 24 2 -1.</_>
        <_>
          0 27 12 1 2.</_>
        <_>
          12 28 12 1 2.</_></rects>
      <tilted>0</tilted></_>
    <_>
      <rects>
        <_>
          2 12 9 12 -1.</_>
        <_>
          5 12 3 12 3.</_></rects>
      <tilted>0</tilted></_>
    <_>
      <rects>
        <_>
          9 23 17 12 -1.</_>
        <_>
          9 27 17 4 3.</_></rects>
      <tilted>0</tilted></_>
    <_>
      <rects>
        <_>
          15 0 5 3 -1.</_>
        <_>
          15 1 5 1 3.</_></rects>
      <tilted>0</tilted></_>
    <_>
      <rects>
        <_>
          26 14 4 9 -1.</_>
        <_>
          28 14 2 9 2.</_></rects>
      <tilted>0</tilted></_></features></cascade>
</opencv_storage>
